4
3
5
4
2
1.000000
0.000000
0.831181
0.000009
1.004258
-0.000010
0.181055
-0.000020
1.097598
-0.000035
0.000000
0.000000
0.513339
-0.000003
-0.275696
0.000009
1.106977
0.000018
1.193808
0.000038
1.000000
0.000000
0.161681
0.000004
0.264492
-0.000001
-0.734836
-0.000014
-1.771870
-0.000029
0.758574
0.000061
-0.178548
-0.000023
0.399433
0.000012
-0.032804
-0.000006
0.853461
-0.000116
0.565789
-0.000028
0.274167
0.000014
0.701482
-0.000007
-0.503323
-0.000205
1.064839
0.000036
0.494787
-0.000010
-0.307482
0.000010
-0.587741
-0.000387
1.847932
0.000041
0.550057
-0.000012
-0.025162
0.000012
1.000000
0.000028
-0.381411
-0.000022
0.089125
0.000013
0.657234
-0.000005
-0.929667
-0.000323
2.477897
0.000063
0.053689
0.000105
-0.377622
0.000007
0.885485
-0.000099
0.711913
-0.000020
1.000000
-0.000199
1.693691
-0.000019
0.000280
-0.000280
1.000000
0.000000
00
0
0

05
1.155817
0.000050
-0.122404
-0.000021
1.391826
0.000083
0.633419
0.000016
0.307312
0.000001
0.161745
0.000024
0.478245
-0.000010
0.230748
0.000040
0.127684
0.000008
0.719367
0.000005
0.617756
0.000049
0.187131
-0.000021
1.517158
0.000081
-0.068180
0.000016
1.000000
0.000002
0.368257
-0.000051
0.161971
0.000022
1.045583
-0.000084
0.188609
-0.000016
0.954988
0.000003
1.231914
0.000080
0.793705
-0.000001
-0.320754
0.000047
0.993268
0.000004
2.055947
0.000081
0.639547
0.000001
0.232425
0.000040
1.000000
0.000006
2.948643
-0.000086
0.999989
0.000005
1.000000
0.000000
001
0.621209
0.000002
1.000000
-0.000004
0.580462
-0.000001
0.848766
-0.000001
-0.839905
-0.000006
1.791732
0.000002
0.086142
-0.000008
1.310780
0.000001
1.000000
-0.000003
1.391974
-0.000001
0.000006
-0.000006
1.000000
0.000000
