4
3
5
5
2
1.000000
0.000000
1.823275
0.000402
0.507786
-0.000151
0.728824
-0.000123
0.746633
0.000099
1.000000
0.000000
1.748951
0.000100
0.674394
-0.000016
0.309413
0.000003
0.615932
0.000018
1.000000
0.000000
-0.730995
0.002844
-0.188433
0.000384
-0.033168
0.000243
0.084753
0.000750
0.993167
0.002889
0.285915
-0.000557
2.388556
-0.000607
0.883846
-0.000216
0.390057
-0.000593
0.758864
-0.001184
0.693865
-0.000183
-0.400807
-0.000057
-0.395756
-0.000014
0.540772
-0.000190
0.763663
-0.000938
0.165096
-0.000059
-0.378737
0.000175
-0.221967
0.000072
0.732567
-0.000056
0.894989
0.000713
0.162970
0.000048
0.597126
0.000295
-0.069159
0.000118
-0.126326
0.000059
1.000000
-0.000519
0.592285
0.000849
-0.336846
0.001409
0.114581
0.000535
0.449603
0.000921
0.932154
-0.000481
0.590544
0.000461
0.437021
-0.000119
0.962238
0.002597
1.800846
-0.001391
-2.293293
-0.000139
0.430237
0.001024
0.347625
-0.000529
-0.482177
-0.000046
0.934597
-0.000421
0.592554
0.000126
0.386274
-0.000134
1.000000
-0.001661
1.620477
0.001597
1.647760
-0.000094
0.999801
0.000084
0.002482
-0.002482
1.000000
0.000000
