4
3
5
4
2
1.000000
0.000000
1.219857
-0.001583
0.432671
-0.000055
0.707190
-0.000423
0.857512
0.000303
0.000000
0.000000
1.168941
-0.000052
0.094289
-0.000003
0.522608
-0.000013
0.574139
0.000016
1.000000
0.000000
-1.848744
-0.001609
0.613707
-0.000055
-0.810921
-0.000427
-0.241909
0.000304
-0.555081
-0.011130
2.099805
0.000568
0.151147
-0.000244
0.643831
0.000016
0.780437
-0.000387
0.034321
-0.000811
-0.115605
0.000349
0.282312
-0.000023
-0.102520
-0.002970
0.613617
0.000093
0.487320
-0.000040
0.282194
0.000003
0.547635
0.002120
-0.078420
-0.000590
0.708141
0.000254
-0.240807
-0.000017
1.000000
-0.000590
0.215308
-0.001036
0.047284
0.000447
-0.114008
-0.000029
-0.772704
-0.007273
2.445542
0.000565
0.206973
0.003116
-0.633630
-0.000171
-0.390000
-0.000205
0.046528
0.000280
1.000000
-0.004406
2.042801
-0.000722
0.005133
-0.005133
1.000000
0.000000
0
0

05
1.155817
0.000050
-0.122404
-0.000021
1.391826
0.000083
0.633419
0.000016
0.307312
0.000001
0.161745
0.000024
0.478245
-0.000010
0.230748
0.000040
0.127684
0.000008
0.719367
0.000005
0.617756
0.000049
0.187131
-0.000021
1.517158
0.000081
-0.068180
0.000016
1.000000
0.000002
0.368257
-0.000051
0.161971
0.000022
1.045583
-0.000084
0.188609
-0.000016
0.954988
0.000003
1.231914
0.000080
0.793705
-0.000001
-0.320754
0.000047
0.993268
0.000004
2.055947
0.000081
0.639547
0.000001
0.232425
0.000040
1.000000
0.000006
2.948643
-0.000086
0.999989
0.000005
1.000000
0.000000
001
0.621209
0.000002
1.000000
-0.000004
0.580462
-0.000001
0.848766
-0.000001
-0.839905
-0.000006
1.791732
0.000002
0.086142
-0.000008
1.310780
0.000001
1.000000
-0.000003
1.391974
-0.000001
0.000006
-0.000006
1.000000
0.000000
