4
3
5
5
2
1.000000
0.000000
1.256932
-0.001216
0.363128
-0.000274
0.655703
0.000145
0.658679
0.000274
1.000000
0.000000
1.380191
-0.000754
-0.050625
-0.000217
0.494275
0.000102
0.739528
0.000152
1.000000
0.000000
-2.038149
-0.002340
0.307212
-0.000653
-0.053631
0.000320
0.174956
0.000582
0.539383
0.000624
0.322869
0.000605
0.364666
0.000166
2.359725
0.001115
1.005679
-0.000312
0.551726
0.000121
0.650502
-0.000360
0.606347
-0.000099
0.178788
-0.000677
0.425318
0.000194
0.798978
-0.000025
-0.157591
-0.000316
0.055419
-0.000086
0.034508
-0.000602
0.716290
0.000175
0.917368
-0.000086
-0.153244
-0.000497
0.164424
-0.000136
-0.477755
-0.000933
-0.008532
0.000270
1.000000
0.000117
1.183084
-0.000849
0.108231
-0.000233
0.321778
-0.001568
0.380835
0.000451
0.895904
0.000154
1.103639
-0.001085
0.683136
0.000033
0.181644
-0.000302
0.857861
0.000343
2.338694
0.001279
0.938060
-0.000048
-0.365378
-0.000167
1.000000
0.000146
1.218018
-0.001362
0.999324
0.000284
1.000000
0.000000
8
1.000000
0.000000
